66 64
33 -0.09598435 -0.20954713 0.048416734 -0.017768145 -0.041444596 0.27925396 -0.251992 0.23391636 0.118687116 -0.018575566 -0.15330108 0.26334354 0.16188799 0.05315432 0.1806647 -0.14887589 0.2061663 -0.28734285 0.05764575 -0.06389168 -0.24807905 0.21690334 0.12786262 -0.1373758 0.21981937 -0.15457416 -0.051820166 0.12956142 0.0016569222 0.32309002 0.002620894 0.14406511 -0.21169469 -0.059590932 0.3419242 0.1417357 -0.34922588 0.13059214 0.20532322 0.095213056 -0.15603425 -0.185837 0.06290889 0.1005042 0.11525806 0.16199607 -0.00095180864 -0.18436907 -0.10995752 0.13886483 -0.056115042 -0.13873172 -0.20340729 0.007235513 -0.1054006 0.07671123 -0.015971938 -0.11352011 -0.08851366 0.14197688 0.11810898 0.02053277 -0.4237398 0.009559463
35 -0.13368212 -0.24599192 -0.06581385 -0.16343677 -0.12509082 -0.123749144 -0.014155096 0.20109437 0.15187533 -0.12244901 -0.133899 -0.30828756 -0.06643933 -0.12247593 0.23603722 -0.027689414 0.008103063 -0.23782651 -0.091387674 0.004185218 -0.14166684 0.20087154 0.30555195 0.100164324 0.09280619 -0.09304567 0.028393665 -0.094779015 -0.05065845 0.16734895 -0.2781162 -0.020960191 -0.18099496 -0.018715626 -0.060760155 -0.05701799 -0.10753653 -0.15985021 0.19083321 0.19642778 -0.42338812 0.15250264 0.20092589 0.15740679 0.30716893 0.03385056 -0.045298766 0.07843385 -0.17279112 -0.027107399 -0.0051514856 -0.0048999907 -0.0135808475 0.05495136 -0.055166353 -0.09079551 -0.07999822 -0.11344226 -0.17392214 0.09410451 0.046199936 -0.18184437 -0.23270175 0.06259351
32 -0.33554 -0.26403314 -0.042888455 -0.1537547 -0.07107119 0.07142135 0.113720864 0.2595619 0.16751091 -0.043718103 -0.06723353 0.07318141 0.22833481 -0.21566986 0.12471909 -0.05622099 0.07991471 -0.095722064 -0.11417851 -0.32306364 -0.133525 0.20569451 0.07143246 -0.16112055 -0.13499092 -0.24562444 -0.074699335 0.12306707 -0.09145741 0.4946363 -0.10426753 -0.23250198 -0.117038295 -0.04546468 -0.11627945 -0.022620188 -0.108174466 0.11565712 0.23965037 0.11477958 -0.20558563 -0.23562811 0.13523428 0.17053832 -0.16503888 -0.036644433 0.0041305483 -0.17252414 0.018928936 -0.23610106 -0.03660006 -0.024750214 -0.08559152 -0.03832656 -0.1018679 0.031161085 -0.19903512 -0.00037672816 -0.27500963 0.042089842 0.06762911 0.15071377 -0.24648266 0.03250943
34 -0.044241708 -0.13740747 0.013490689 -0.2761325 -0.17692506 0.03839761 0.19059047 -0.12914544 0.20176883 -0.23295929 -0.017225461 0.25146177 0.031995572 -0.17334466 0.21073379 -0.14032829 -0.014757752 -0.10759365 0.18554734 -0.10143678 -0.3410434 -0.0044282945 -0.12049805 0.031080915 0.11829306 -0.057719786 -0.013508104 0.0747357 0.12703052 0.32061112 -0.3085599 0.010132475 -0.15216506 -0.07207591 -0.06899417 -0.01969146 -0.18399642 -0.1111706 0.08651752 0.113588795 -0.16627073 0.15095869 0.10595965 0.063994914 0.09066954 0.31566206 0.058274463 -0.16467358 -0.07059268 -0.012173614 0.08196826 -0.08665511 0.08716292 0.10447786 -0.15107772 -0.081677526 0.118302785 0.029699394 -0.28349438 0.19950403 0.19985417 -0.030425148 -0.13368449 -0.19164278
28 -0.43223718 -0.3515173 -0.04637709 -0.41735297 0.22446285 0.043741822 -0.119708136 0.44141412 0.13705823 -0.025341474 -0.19463146 0.4948477 0.20362589 -0.078566335 0.20766525 -0.31697538 0.11407203 -0.048513625 -0.0016620929 -0.25435808 -0.37881243 0.1180282 0.22824536 -0.0918375 7.366788e-05 -0.4346902 0.15757282 0.07883878 -0.14875269 0.29254428 0.09601235 -0.0068686865 -0.44936454 -0.022538558 0.06240828 -0.02833397 -0.45193833 0.4790534 -0.022056662 0.06923461 -0.040567245 0.007500807 0.070430994 0.069932975 -0.053229824 0.11595401 0.10967719 -0.20874435 0.023405619 -0.0014976497 -0.11814218 -0.25793794 -0.3214228 -0.16437018 0.01267278 -0.027983228 -0.16964045 -0.21163553 -0.21181574 0.059990793 0.104784414 -0.048850242 -0.4426129 0.20536973
30 -0.35473806 -0.31106213 -0.16199076 -0.30799967 -0.19663401 0.1198434 -0.2658303 0.57241786 -0.0865733 0.06418453 -0.15440162 0.3368324 0.30640775 -0.0999232 -0.008166386 -0.06902902 0.18381216 -0.29817468 -0.05627997 -0.28696525 -0.1684271 0.16193253 -0.26653957 -0.20847939 -0.021882601 -0.11691495 -0.057292156 0.13295723 0.08093555 0.28568828 0.11006166 -0.07986295 -0.3223793 -0.22544748 -0.014901168 -0.014358475 -0.47036877 0.3145976 0.3217674 0.42181388 -0.13879368 0.0714666 0.19814023 0.070213154 -0.059999723 0.00771856 -0.04395577 -0.14530498 0.09894702 0.09229327 -0.08852026 -0.20186353 -0.41509342 0.1275555 -0.022766937 0.061658315 -0.073488474 -0.05282562 -0.11725214 0.16620968 0.0678591 0.061580125 -0.4515951 0.017914383
29 -0.35101554 -0.21778512 0.10077893 -0.33231857 0.20333567 0.05329255 -0.1665566 0.51729447 0.0649589 0.23396356 -0.3004581 0.39967063 0.37323216 0.061411563 -0.005576233 0.043822244 0.03523737 -0.24600697 -0.13350165 -0.056302913 -0.22257781 0.18053155 0.027436286 -0.20006225 0.019097095 -0.23385069 -0.110175245 0.15796635 -0.14973652 0.54521817 -0.19422317 -0.20671058 -0.17919086 -0.044262737 -0.040538404 -0.20626853 -0.33671936 0.37239748 0.44589642 0.22082901 -0.20769614 0.036261942 -0.11118627 0.17929423 0.02829186 0.07779016 -0.12569903 -0.17212011 0.04532409 -0.022769002 -0.046978317 -0.1508349 -0.21192798 0.02250795 -0.18037844 -0.00929205 0.06581479 0.267236 -0.16715974 0.33937436 0.19366907 -0.205533 -0.3801263 0.019451512
43 -0.077809446 0.14968415 -0.056702252 -0.15664674 -0.015055706 0.09122918 0.12955134 0.023322575 0.27033865 -0.2315569 -0.059785653 -0.09743216 -0.15011846 -0.16904396 0.5776139 -0.07207132 -0.062439907 -0.32204887 0.21751225 -0.0986591 -0.1126252 0.00612957 0.057795927 0.20845073 0.026142677 -0.032682605 -0.20396963 -0.2841559 -0.10965013 0.38080946 -0.29510984 0.09160342 -0.11709858 -0.20517413 -0.12817995 -0.14476027 -0.26706076 -0.01735122 0.13491796 0.29987428 -0.07573685 0.016299827 0.22159325 -0.18917997 0.24544325 -0.03848928 0.05372394 -0.060027543 -0.3644323 -0.15206042 0.24368717 0.14123806 -0.14719304 0.19779953 -0.077904254 -0.041852262 0.078372136 -0.022177031 -0.061841276 0.15102491 0.27234435 -0.15716761 0.017408168 -0.027775748
46 -0.2950572 -0.26252502 0.10023627 -0.15593074 0.029468307 -0.0045039644 -0.074003346 -0.1508667 -0.12630528 -0.014589263 -0.0019060808 -0.051992502 0.017536499 0.013040079 -0.030088978 -0.0024366719 0.19413073 -0.23215389 0.24711129 -0.2785225 -0.33400375 -0.016863057 0.06268277 0.037658125 0.23338886 -0.30816847 -0.040319983 -0.15124948 -0.05474606 0.20182075 -0.038109265 -0.15165663 -0.210077 -0.026952673 0.10522862 0.12172306 -0.20522302 -0.19220285 0.22019956 0.106599875 -0.30244246 -0.18140754 -0.062373288 0.23963626 -0.01977627 -0.19947538 -0.13182716 -0.2360414 -0.02962264 0.094949305 0.097425885 -0.19690423 0.14146602 0.24295442 0.09691813 -0.12907991 -0.23309152 -0.12347255 -0.107208826 0.03252798 0.00970958 -0.2338117 -0.29865682 -0.19138888
31 -0.2217187 -0.45813596 -0.09781288 -0.27274656 -0.15367691 0.15770158 -0.07481774 0.37432984 0.1196387 0.046308346 -0.03155743 0.37917593 0.36084896 -0.017549014 0.008670339 -0.18564917 0.12170761 -0.3680994 0.013283467 -0.2995946 0.006611545 0.1526106 0.17707628 -0.22988679 0.028149908 -0.3339027 0.032522544 0.0099053765 -0.37302628 0.51205456 0.094451584 -0.2281905 -0.15100396 -0.074881114 0.22160056 -0.050091535 -0.46388006 0.32918593 0.26398438 0.23908076 -0.12978294 0.16955912 -0.022641072 -0.020531597 -0.11857964 0.14282613 0.12839802 0.006173639 0.16215159 0.12521225 -0.18371463 -0.26820257 -0.35016134 0.09285676 -0.15958713 0.13699338 -0.120516255 -0.07574567 -0.4437537 0.1855542 -0.07912454 -2.4231884e-05 -0.18664938 0.09894197
44 0.08588119 -0.09971827 0.026792679 -0.29026067 -0.07090481 -0.023240382 0.34837753 0.0062483125 0.16055709 -0.0371001 0.022289094 -0.26275706 0.060421247 -0.08490172 0.25642085 -0.047646835 0.02650518 -0.39479083 0.34935737 -0.2153302 -0.12676157 -0.010471238 0.12654749 0.30343106 -0.011422908 -0.18869308 0.070728965 -0.024228292 0.16390336 0.09337394 -0.16498087 0.34762475 -0.11166007 -0.078117676 -0.11154688 0.07623549 -0.14592075 -0.0135978265 0.073397614 0.24178989 -0.26603505 0.035540342 0.26992473 0.09281753 0.2957795 0.1608087 0.012152433 -0.22285464 0.054361243 -0.058809903 0.09646639 0.39449748 -0.1928857 -0.05621782 -0.3069692 -0.11073609 0.3334582 0.10917919 -0.31105798 0.10335569 0.30172896 -0.20558311 0.027517922 -0.11170827
47 -0.397202 -0.14270185 -0.006129784 -0.35159266 -0.06017162 0.01745352 -0.03296452 -0.21170452 -0.1288533 -0.13350362 -0.21517976 0.037098695 0.3559108 0.053682234 0.16894616 -0.1457942 0.19314292 -0.07662709 0.078542665 -0.25020757 0.077097945 0.068683036 0.020694617 -0.048527926 0.116524324 -0.054010406 0.09579681 0.20453796 -0.03583464 0.3858507 -0.20168243 0.24677739 -0.038043108 -0.11026183 0.08078513 0.13658406 -0.04905165 -0.25944006 0.24816307 0.099007905 -0.18803917 -0.15544122 0.030277537 0.21405551 0.0029939248 -0.118288524 0.17486222 0.20102757 -0.08294152 -0.18360113 -0.043598834 -0.24665484 0.0042244964 -0.029739948 0.0616 -0.064583965 0.018151708 0.06760479 -0.12538408 0.22289248 0.19185717 -0.09737702 -0.16884129 0.17557694
42 -0.0512796 -0.02876771 -0.016141552 -0.33215222 -0.049321823 -0.17972243 0.13218908 0.07349063 0.26763484 -0.12632798 0.06456394 -0.10743734 -0.115918815 -0.12747529 0.06118345 0.07715213 -0.018103119 -0.5071051 -0.07247652 -0.15652908 -0.30043182 0.06849669 0.08843229 0.08368549 -0.17944966 -0.18187796 -0.010473166 -0.054802097 -0.02427244 0.36589503 -0.1869051 0.46310914 -0.23673697 0.07462268 -0.09158517 -0.028469786 -0.046462443 -0.21666111 0.0015263618 0.20909245 -0.23239517 0.06508584 0.09102159 -0.10329549 0.082457125 0.32800093 0.08308992 0.0033348189 -0.39191487 -0.086373 0.21761349 0.33248106 -0.13000251 0.2874232 0.044948548 -0.065398335 -0.010605671 0.13969548 -0.26327643 -0.047047134 0.26876163 -0.15917052 -0.042497937 -0.16174337
45 0.06788775 -0.2009682 0.09879166 -0.34083807 0.055940665 0.004344109 0.14338663 0.10958136 0.14921975 -0.23468357 0.21869487 -0.39440313 -0.1503369 0.051018804 0.2213071 -0.2634247 0.0937897 -0.2548897 0.15954535 -0.0023485147 -0.13986382 0.21051279 -0.07052421 0.14787237 -0.2255913 -0.105778486 -0.15320277 -0.21983458 -0.17573144 0.14367682 -0.20120323 -0.02234937 -0.21288852 -0.14354901 -0.15245923 -0.07704227 -0.01231144 -0.10375909 0.3383128 0.012021354 -0.241121 0.0630778 0.5511243 -0.06382178 0.075111695 0.3052469 0.16001555 -0.14058654 -0.39727232 0.027475808 0.11262454 0.06295093 0.017779823 0.034857612 -0.0984452 -0.2546098 0.18516488 0.03742668 -0.15272494 0.21819267 0.31925455 -0.0879736 0.033698425 -0.05804825
51 0.2610357 -0.17400748 -0.17735636 -0.6312409 0.002449168 -0.011018672 0.16752815 -0.24404441 0.18392004 -0.11459018 0.28335074 -0.32611924 -0.15646648 0.26465687 0.15190864 -0.22358096 0.10733054 -0.42700282 0.061261196 -0.028673543 -0.051327307 0.0057769646 -0.10912119 0.42047355 -0.21054393 -0.28638184 -0.2827888 -0.06386913 0.08701797 0.09188308 -0.15904118 0.09272027 -0.075913146 0.122858144 -0.15780742 -0.005055358 0.001596938 0.0648361 0.23363589 0.14825879 -0.38089168 -0.001157026 0.47087902 0.045245096 0.3839739 0.06763319 0.32997915 -0.3627243 -0.1293954 -0.27994296 -0.0154706845 0.029461741 -0.029490292 0.16478826 -0.300035 -0.052493535 0.29629967 -0.111454934 -0.25202546 0.049485516 0.298794 -0.4413524 0.02818002 0.08335495
50 0.18532726 0.03363868 -0.22942299 -0.665812 0.08178232 0.38354418 0.3507031 -0.0067766146 0.011273091 -0.1926871 0.13647851 -0.3947677 -0.019645866 0.12793115 0.062257487 -0.20096095 0.2637428 -0.302692 0.08811278 -0.019571975 -0.045067057 -0.086529985 0.03682599 0.13402945 -0.23553452 -0.32376742 0.14468609 -0.17028376 0.17834274 0.2033638 -0.29583886 0.04766871 -0.12993783 -0.16033211 -0.119627416 0.12010377 -0.18375684 -0.24459234 0.23080324 -0.092367925 -0.42546558 0.06530161 0.49050796 -0.16020153 0.40099928 0.17653424 0.27861843 -0.28546885 -0.19233966 -0.09108352 0.051525638 0.23664473 0.014885179 0.16308296 -0.124675415 -0.027508473 0.4899409 -0.07553556 -0.1643694 0.025604513 0.14111298 -0.30669656 0.08388382 -0.14460196
37 -0.0077260365 0.24048199 -0.15614493 -0.10773545 -0.20651013 0.0035128251 0.049996853 -0.1270566 0.17999719 -0.42974716 -0.48970735 -0.12522018 -0.05209832 0.21779728 -0.009203231 -0.15401395 0.2403579 -0.23163244 0.016763264 -0.2082486 -0.14092898 0.042723708 -0.06073491 0.117067575 0.0551777 -0.22643311 -0.17164212 -0.12814158 -0.5700402 0.32165325 -0.40141025 0.31539136 -0.590746 -0.11381502 0.081624106 0.035835132 0.03478675 0.066523045 0.037583966 0.26351318 -0.011354979 -0.062158216 0.09274266 0.25474355 0.30964658 0.17228797 -0.114298455 0.06510123 -0.4122325 -0.13415647 0.16947408 0.04933793 -0.3130905 -0.0111657325 0.009975785 0.07834732 -0.13170934 -0.011267846 0.08147864 0.2449119 -0.045548595 -0.016350225 -0.19939806 0.042736996
54 -0.22556135 -0.30858997 -0.3448076 -0.31623483 0.14046918 0.2931235 0.18078832 -0.12907723 0.09047692 -0.21767429 0.2130855 -0.18498904 0.07161959 0.43322203 0.009757546 -0.28264257 -0.022084728 -0.19286175 0.20422763 -0.32642102 -0.25422242 -0.43450248 -0.12587751 0.19021289 -0.2643674 -0.46889454 -0.060683466 0.16120134 -0.053557098 0.15112017 0.15157418 0.078912355 -0.28959814 -0.027142325 0.18470347 0.37232217 0.15696314 -0.60639507 0.53477746 0.06550413 -0.31364706 -0.11220319 0.25491312 0.02766945 0.25576648 -0.1783185 0.03823872 -0.19119853 0.03005199 -0.30551314 -0.15987855 -0.09718709 0.24191727 0.13738471 -0.007898264 0.11014881 0.50945646 -0.30454803 -0.10440031 0.20015456 0.24876803 -0.6434401 -0.031640925 0.1952379
36 0.05799058 0.118788354 -0.07836673 -0.069245696 -0.08867305 -0.063731626 0.26436472 -0.025268031 0.32395273 -0.18311025 -0.15722711 0.013121342 0.16747157 -0.12196918 0.06354673 0.16510683 0.009131533 -0.37658393 -0.034355816 -0.4271665 -0.16478276 -0.1185878 -0.14922166 0.15574433 -0.052383143 -0.6104951 -0.18725815 -0.054769058 -0.35035372 0.34041488 -0.32814297 0.0944084 -0.24302627 -0.15232588 -0.14787003 0.16887952 -0.014022257 -0.07075526 0.054718837 0.17016248 -0.23452628 -0.21897237 0.110507235 0.08554157 0.3564467 0.2902877 -0.20116103 0.16247803 -0.11607214 -0.04243726 0.49027115 -0.3673809 -0.34022963 0.0011877473 0.14161614 -0.08163799 -0.27922818 0.084202394 -0.014475408 0.06215319 -0.05859 0.08947694 0.01192725 -0.32782945
48 -0.2737949 -0.08289214 -0.18350816 -0.34274042 0.21936965 0.06948693 0.08994512 -0.2655762 -0.19850601 -0.28168836 0.12383899 -0.014675366 0.16865355 0.0051491903 -0.18991183 -0.36527503 -0.24010564 -0.24419612 0.08793737 -0.30484614 -0.20201547 0.017395359 0.10799403 -0.044095498 0.15558824 -0.21832503 0.06341812 0.08392016 0.05845718 0.23080084 -0.06271304 -0.34968624 -0.07311446 -0.09298845 0.36623356 0.38703257 -0.010136987 -0.36456147 0.35171512 0.47306708 -0.4296137 -0.3909529 -0.16186531 0.27329123 0.04316752 -0.19766487 0.06348957 -0.07114865 -0.050271723 0.013040578 -0.063802995 -0.10592967 0.11411075 0.007987749 0.22788002 0.025738148 0.06509497 -0.022320101 0.16398354 0.083728224 0.18676858 -0.25514162 -0.26253632 0.030299826
49 -0.37334517 -0.11591407 -0.24163128 -0.41678205 0.31325954 0.18997781 -0.022278026 -0.38048938 0.19960535 -0.022510273 0.016035778 -0.11039587 0.15936005 -0.007873975 -0.1021976 -0.11388453 0.09155714 -0.0012757181 0.3679858 -0.19624023 -0.068329014 0.05853196 -0.16112575 0.16127095 -0.028753705 -0.16022076 0.15384246 0.3186315 -0.009153905 0.39893642 0.014186973 -0.030718464 -0.22862437 0.03616637 0.12429755 0.117172204 -0.017404167 -0.39864203 0.39759257 0.04296769 -0.31346092 -0.31797504 -0.011657331 0.33565965 -0.0074776327 -0.3419175 -0.14391524 0.119932644 0.02367954 0.063800946 -0.017699629 -0.14610723 0.13986526 0.13050222 0.17629068 0.30886126 0.100879274 -0.26530132 -0.22467345 0.17982705 0.060137212 -0.22056156 -0.30396447 0.15222853
41 -0.27553427 -0.0029141256 -0.20179144 -0.18100905 -0.033418108 0.060993258 -0.056505565 -0.011410279 0.073390484 -0.232635 -0.28170866 -0.14403446 0.01100525 0.10542033 0.102985196 -0.08709081 0.3074476 -0.15483955 0.08560668 -0.004544623 -0.08517658 0.085102506 -0.053923246 0.08943061 0.16241807 -0.13591352 0.10040257 -0.01759387 -0.1645561 0.3119875 -0.25134552 0.11483085 -0.20544662 0.049067747 0.042803016 0.14919136 0.06938977 -0.02831443 0.23002489 0.24153015 0.019924847 -0.037918907 -0.12789789 0.29067102 0.025141325 0.20657754 -0.13826242 -0.22639945 -0.23908749 0.011716159 -0.1733156 -0.08105982 -0.34131455 0.058796816 0.086947195 -0.10296485 -0.11712493 -0.10139846 -0.17106089 0.20363487 0.18302956 0.07087205 -0.2995623 0.041810192
40 -0.112921044 -0.26390314 0.0074215513 -0.19907731 0.12839544 -0.17766698 0.17050137 -0.09064557 0.16758832 -0.1336461 -0.18673572 0.21650173 0.107287824 -0.09250797 0.11024362 -0.045882575 0.020454165 -0.26401266 0.0042980383 -0.27018934 -0.3361988 0.056957085 0.11368644 0.00023507005 -0.014915813 -0.20671113 -0.29640415 -0.087037385 -0.008762879 0.2852272 -0.010083676 -0.06949699 -0.02038811 -0.13355413 -0.033979364 0.12521239 -0.25172392 -0.10138653 0.12555426 -0.012195027 -0.24016036 -0.24560033 0.26511818 0.2080156 0.22946425 0.0013736065 -0.2410152 0.13087682 0.07265783 0.04149647 0.14057003 -0.2658569 -0.23216417 0.16516182 0.17211993 0.064500526 -0.0640692 0.22684686 -0.20173544 0.123130165 -0.011745223 0.07863064 -0.071298234 -0.20563994
55 -0.18218459 -0.33085844 -0.42501363 -0.6398782 0.40245664 0.13693441 0.32760012 -0.17801493 -0.021222597 -0.09967991 0.28371966 -0.24345103 -0.058455348 0.4968413 -0.041940622 -0.14549959 -0.027626166 -0.23119093 0.3702922 -0.45448217 0.075138904 0.032204155 -0.048330575 0.12479519 -0.03144808 -0.33718222 0.099187635 0.12696503 0.32244357 0.019153075 0.013985629 -0.13540559 -0.4355666 -0.14187472 0.38255128 0.1969 -0.036578324 -0.5717551 0.48032677 0.22570056 -0.4829567 -0.26110986 0.055185806 -0.08374012 0.37866426 -0.0568498 0.15393983 -0.41609544 -0.15340169 -0.38640097 0.007517527 -0.18039936 0.14479952 0.057325434 -0.08702473 -0.03812254 0.3395451 -0.04906804 -0.030194968 0.055621468 -0.022123178 -0.30262026 0.12312231 0.03956808
53 0.18231635 -0.2958285 -0.16529435 -0.5109883 0.04559894 0.31311664 0.15270557 -0.08144411 0.07921214 -0.12084798 0.16092682 -0.29100996 -0.033107996 0.25406408 -0.066578746 -0.28393283 0.16925943 -0.31394276 0.117720746 -0.06815826 -0.12092488 -0.29937646 -0.033441853 0.3399521 -0.36277744 -0.3923193 -0.07641442 -0.09325239 0.029619927 0.13091134 -0.1595831 0.053973768 -0.219426 0.021237088 0.084167056 0.28753084 0.15796138 -0.20591848 0.34677792 0.07829491 -0.35319045 0.0023444952 0.3771717 -0.064184114 0.3856757 -0.26639357 0.36622706 -0.25568023 -0.10069208 -0.2400266 0.08698517 0.10988279 0.16501033 0.114452586 -0.15756647 0.0042092237 0.5933727 -0.29866636 -0.42285454 0.19582497 0.39503476 -0.2567379 0.038655937 -0.10704406
52 0.2165694 -0.23331368 -0.37814817 -0.66415995 0.32354414 0.28006518 0.29550204 -0.19202615 -0.05060667 -0.107465565 0.25680155 -0.27690104 -0.21421666 0.18672648 0.008470347 -0.040042587 0.09283516 -0.30104065 0.17719617 -0.12959573 0.025060402 0.055309754 -0.11582949 0.21950981 -0.26976758 -0.2773085 0.15615411 -0.0478894 0.19574867 0.030713797 -0.4070309 0.089050494 -0.37111405 -0.26106903 0.091859505 0.10381809 -0.067214906 -0.2732746 0.19255224 0.14720957 -0.42236793 -0.32122016 0.46052995 -0.06183951 0.5169528 0.011285595 0.3428748 -0.428734 -0.09280189 -0.21942745 -0.08426876 0.055800747 0.12632042 0.20009613 -0.2901086 -0.21323562 0.3517516 0.021318184 -0.23504692 0.21880221 0.14113225 -0.37397188 0.1362829 0.09176261
27 -0.5951658 -0.3867626 0.21916428 -0.39706075 0.12403755 0.12173523 -0.19453023 0.5320599 0.2451092 0.07923904 -0.28368512 0.48754352 0.60423326 0.04895332 -0.0472269 0.20173696 0.20214267 -0.21112384 -0.3512488 0.23791632 -0.35489854 0.27256644 -0.02679663 0.090189174 0.09336182 -0.60743374 0.19861671 0.14474292 -0.1841308 0.47415063 -0.165677 -0.28357446 -0.1686654 -0.091722414 -0.21231438 -0.16853192 -0.631877 0.2092295 0.31232524 0.5824503 -0.20405512 -0.15570098 0.2191147 0.34822002 -0.11241751 0.010508521 -0.1307989 -0.15614477 -0.20228791 -0.09014645 -0.055294644 -0.09236924 -0.08464517 -0.10394479 -0.35295495 0.15862863 0.024928236 0.3577673 -0.13504443 0.37106347 0.28500146 -0.14783722 -0.2401115 0.006190821
57 -0.40491146 -0.18163428 -0.12608908 -0.4873456 0.12717797 0.49657443 0.034885116 -0.3131136 0.049995378 -0.12131575 0.15473999 -0.19200796 0.13594578 0.0012047867 -0.23880787 -0.15542108 0.020252706 0.016971346 0.23807472 -0.24186213 -0.19865328 -0.41098768 -0.0020255907 0.119121805 -0.13332862 -0.22494829 -0.11089477 0.19267671 -0.1592459 0.081128195 0.012060489 -0.023514481 -0.23633312 0.124653645 0.27420264 0.49238852 0.12264816 -0.44676667 0.45992443 0.2851171 -0.30418238 -0.24840651 0.070093 0.21335685 -0.01592972 -0.2799852 0.05850123 0.037835903 0.008526595 -0.13326216 -0.01560778 -0.34457844 0.08449893 0.055406623 0.0136450855 0.19729422 0.40028697 -0.15515038 -0.1368921 0.068194725 0.18925779 -0.49747515 -0.34429428 0.106427625
26 -0.6350482 -0.106693596 0.024019653 -0.5491184 0.079101026 0.12275885 -0.05377836 0.558121 0.28229496 0.22898428 -0.331673 0.5193369 0.6183195 -0.014481294 0.2184082 0.0049249884 0.118314974 -0.044266216 -0.12194448 -0.28891328 -0.2324709 0.36317527 0.36375803 0.03223244 0.05426355 -0.52328086 -0.03375318 0.106793605 -0.26506358 0.13908035 -0.053552255 -0.23438537 -0.38137567 0.029362034 0.047056396 -0.12416155 -0.3125739 0.46101734 0.04092429 0.21865505 -0.06690304 -0.21738863 0.08828653 0.08977841 0.008962366 0.24358313 0.030388495 -0.3842995 -0.09800314 0.19206232 -0.077740386 -0.17184022 -0.004394258 -7.397181e-05 0.0020470535 0.0610103 0.028045587 0.021016806 -0.11075172 0.4939173 0.18850611 -0.21453616 -0.43544236 0.14232263
56 -0.1514884 -0.1429843 -0.23501565 -0.6780245 0.368615 0.3079179 0.0652473 -0.16842285 -0.20459399 -0.12435909 0.11461222 0.12527108 -0.02972558 0.3310846 -0.076122634 -0.05195844 -0.1737274 -0.1368162 0.32872728 -0.4727463 0.04071353 0.12698133 -0.1315452 0.17493019 0.035286088 -0.10860832 0.21787421 0.17940845 0.03806939 0.21994597 0.036325462 -0.17924543 -0.26234424 -0.04911391 0.30785623 0.368841 -0.059864398 -0.5098574 0.32026702 0.28164133 -0.63675517 -0.45346954 -0.014069768 0.17349769 0.15144816 -0.32447574 0.0077870227 -0.11581822 -0.20997241 -0.0871873 -0.16728203 -0.13103689 0.14873064 -0.03555441 0.053017072 -0.023646425 -0.007325272 -0.12924148 -0.09984924 0.058890745 -0.16960916 -0.3970388 0.025844468 -0.03984633
39 0.08193016 0.309401 0.03170589 -0.12409884 -0.09873645 -0.021491526 -0.0069487486 0.13569647 0.19414961 -0.44181764 -0.25056863 -0.03631883 -0.21439461 -0.0100019295 0.06808837 -0.07085713 -0.030872684 -0.13588709 0.202718 -0.050773546 0.1272536 0.062772825 0.00986862 0.14392188 0.13126771 -0.32461798 -0.3294764 -0.20276092 -0.1948259 0.41100073 -0.26580194 0.23444563 -0.49373084 -0.17003655 -0.010129604 -0.17403358 -0.11611479 -0.27762395 -0.009588659 0.4600061 0.044708576 0.024631638 0.1723636 0.21793385 0.24528453 0.30198416 0.12751035 0.0056856647 -0.4342333 -0.2183818 0.29659596 0.3160708 -0.30338395 0.15150926 0.12449498 -0.046774287 0.00475778 -0.0038849711 -0.3340175 0.09417119 0.13338144 -0.12937164 -0.13365397 0.10048237
20 -0.079447076 -0.07209811 -0.027971342 -0.10189757 0.04647284 -0.035969734 0.15664877 0.12261772 0.038007744 -0.37289965 0.04907117 -0.23844922 0.05029662 -0.22980185 0.40030816 -0.14330654 0.18431574 -0.09128509 0.1853645 -0.038139164 -0.09287806 0.23670962 0.2143939 0.10658016 -0.09144165 -0.11636682 -0.025435556 -0.27187702 -0.03756609 0.26181817 -0.059735436 0.31042883 -0.17569269 -0.11724984 -0.27429622 -0.10200882 -0.12390723 -0.05795524 0.09347394 0.38620263 -0.3597567 0.16332862 0.040573943 0.04315088 0.339826 0.07169209 0.03172811 -0.36917958 -0.14343266 -0.046687897 0.15776892 0.16155694 -0.04389783 0.2757765 -0.15216848 6.51797e-05 0.20770329 0.113076836 -0.2655305 0.08996865 0.120260075 -0.18879949 0.04064783 -0.17189297
22 -0.42781633 -0.37481245 0.100984976 -0.25308505 0.012766699 0.08473504 -0.21556664 0.3834382 0.10933777 -0.003917299 -0.15138315 0.37018535 0.25314233 0.045141548 0.01400276 -0.08454498 0.106184855 -0.3696092 -0.029990178 -0.07888377 -0.019374834 0.076530844 -0.029577913 -0.34387645 0.23212916 -0.24718195 0.13895331 -0.10796666 -0.028574834 0.61984736 -0.024866313 -0.11616965 -0.19764066 -0.00026913465 0.05448925 0.022394605 -0.3641736 0.37447646 0.30543378 0.24665122 0.123744816 -0.16489463 0.0912077 0.10367975 0.120047934 0.16248214 -0.05934197 -0.046338156 0.043491002 0.123491965 -0.163197 -0.08097964 -0.15263268 0.0905626 -0.25643075 -0.039336704 0.07616743 -0.20952184 -0.15407436 0.12563306 0.003394028 -0.10039539 -0.37332213 -0.16450217
38 0.016195599 0.029494619 0.06462808 -0.18045412 -0.09996412 -0.030189417 0.1749088 -0.05983307 0.31420934 -0.44422588 0.07254545 -0.12830955 -0.0060161967 -0.23680872 0.12304082 0.20198828 -0.012871068 -0.44246903 0.008873231 -0.25125206 -0.10470595 0.03977353 0.08327021 0.20115015 -0.23723827 -0.36366734 -0.12154024 0.067866616 -0.097819336 0.40856972 -0.13108267 0.026679125 -0.45535517 -0.2181882 -0.30064148 0.11298824 -0.09391144 -0.022286844 -0.17193863 0.10308582 -0.094492495 -0.05328133 -0.032351118 -0.34927443 0.4411458 0.19954006 -0.18715814 0.24999554 -0.2222418 -0.069284275 0.38577026 -0.02862737 -0.26635057 0.059868574 0.07714983 -0.12822333 -0.1201924 0.1531752 -0.16376771 0.13817973 0.36256123 -0.24331428 -0.036850825 -0.27941602
9 -0.52628714 -0.30845433 -0.100389674 -0.22112218 -0.20754556 -0.07111487 -0.023271281 0.4797305 0.06848846 0.1429131 -0.1748712 0.4152048 0.15379202 -0.19905159 0.0058537354 -0.23455535 0.28580868 -0.09516854 -0.044798058 -0.15889506 -0.124749 0.09414355 0.16195633 0.09124177 -0.21100724 -0.17693897 -0.10362935 0.20428507 -0.08083359 0.4777986 -0.06779751 -0.1708691 -0.24107203 -0.011526618 0.09847319 -0.08144728 -0.34126756 0.17201848 0.2516722 0.13128662 -0.24753934 -0.00664019 0.14041018 0.016518805 -0.13879976 0.06365757 0.11518029 -0.28957975 0.1233293 0.014338413 -0.0062539964 -0.27180922 -0.45040187 -0.109919004 0.07895242 -0.10736255 0.025184058 0.054034878 -0.13332903 0.09318916 -0.06673703 0.0038627775 -0.43678674 0.16474666
17 0.41944835 -0.15989321 -0.12237377 -0.6896403 0.24204941 0.29251117 0.3478456 -0.12598063 0.222346 -0.11670989 0.44093677 -0.3712446 0.03077114 0.3256663 -0.018479707 -0.26451975 0.21320978 -0.23713861 0.031421393 -0.27415386 -0.13337895 -0.107226625 -0.037708778 0.3171947 -0.22463423 -0.21007207 -0.00042176628 -0.17494535 0.35256943 0.14659078 -0.33787984 0.05804046 -0.29961628 -0.016019393 0.049975697 0.024676422 -0.024971034 -0.06747863 0.35194573 0.2195118 -0.23472093 0.0021775656 0.61945784 -0.07047592 0.4600696 -0.14837737 0.36821786 -0.3289017 -0.1721726 -0.1113864 0.020148704 0.099489845 0.042708777 0.08947597 -0.24641292 -0.1408375 0.22263242 -0.022166122 -0.33779845 0.22508706 0.12808281 -0.3448501 0.12022219 0.08002057
7 0.260552 -0.14551386 0.08224826 -0.30986565 -0.043562528 -0.052375343 0.30005294 0.19344011 0.2525214 -0.21557775 -0.03066144 -0.11307795 0.1369177 -0.15095198 0.112172395 -0.022780355 -0.12998088 -0.52057827 0.14544336 -0.0736958 -0.20271522 0.13048182 0.059803475 0.15970439 0.033798024 0.06572422 -0.0011205606 0.0054413322 -0.033759125 0.20102999 -0.28885528 0.16974653 -0.14149515 0.09169651 -0.21446437 0.0008158969 -0.27613488 -0.28010625 0.15214415 -0.07250393 0.012768296 0.029036945 0.40522233 -0.05834009 0.065308206 0.21805565 0.06697915 -0.13008252 -0.22682975 -0.18163952 0.13800319 -0.07362891 -0.067766376 0.2377071 -0.056279436 -0.22217382 0.036194596 -0.037469875 -0.20875426 0.13426991 0.47293878 -0.09374651 -0.10102201 -0.015286477
3 0.43843308 -0.20539458 -0.15434937 -0.6153269 -0.010571703 0.39457726 0.31277293 -0.10714767 0.30947164 -0.09815009 0.32552722 -0.26361844 -0.057704516 0.1781693 0.05867298 -0.26363912 0.24398677 -0.17663322 0.11047612 -0.13154835 -0.12457751 -0.15287232 0.020724922 0.20743212 -0.46377933 -0.35545364 0.09255688 -0.27681285 0.2622831 0.1466859 -0.33651698 0.15072554 -0.22629768 -0.134402 0.11018592 0.117223985 -0.093195625 -0.15269852 0.40216476 0.048391778 -0.2814498 -0.11553295 0.3617588 0.18016501 0.40576488 -0.11627595 0.2836742 -0.28337255 -0.09267212 -0.1834643 -0.010351853 0.15642545 -0.07092981 0.122581564 -0.09965187 -0.24245645 0.5616673 -0.16685544 -0.20832774 0.10826475 0.22955547 -0.4981598 0.1621971 0.065858
4 0.2157133 -0.26921192 -0.45583078 -0.5373258 0.01434525 0.33529764 0.33870685 -0.004209104 0.11998771 -0.29625705 0.11541717 -0.2739799 -0.30947006 0.20763122 -0.06558149 -0.24053565 0.11820981 -0.34687337 0.18327515 -0.0011868284 0.20683219 -0.12221104 -0.05914372 0.24418171 -0.39717862 -0.46666571 -0.002951293 -0.23245652 0.15946913 0.07301891 -0.23987374 0.2544419 -0.20419598 0.027602294 -0.009198894 0.1241399 -0.1255915 -0.050122682 0.34725085 0.0047337487 -0.45734075 -0.2126879 0.42003906 -0.09353144 0.3701657 -0.050332736 0.36830395 -0.29125342 0.051059645 -0.027433695 0.019282268 0.112836964 0.19240232 0.16900861 -0.21151263 -0.08397713 0.46718073 -0.13098338 -0.26088375 0.2541682 0.43560278 -0.40283003 0.042355075 -0.07119797
16 0.23903781 -0.34502333 -0.2080416 -0.68131495 0.13554323 0.29195762 0.2838014 -0.2457104 0.21293613 -0.12008808 0.030410454 -0.3218189 -0.29608694 0.28008023 0.027882429 -0.18317626 0.08457165 -0.32418206 0.000951064 -0.04094565 0.20550843 0.11117006 -0.08380348 0.19873498 -0.25026116 -0.39194605 -0.0776443 -0.13602008 0.20663242 0.12882699 -0.27873644 0.17356823 -0.1912385 -0.04231948 0.100614324 0.1932747 0.015784217 -0.11795064 0.29277653 0.23339826 -0.48311767 -0.050308608 0.5869147 -0.35943836 0.3712499 -0.061011583 0.23687544 -0.5676483 -0.014813451 -0.11454566 0.14380619 0.18045828 0.21740489 0.034422953 -0.19459006 -0.15337022 0.2892745 -0.07873044 -0.28803757 0.18382245 0.25612947 -0.30190876 0.045082867 0.028678598
63 -0.66171694 -0.3091056 0.096640214 -0.44843015 0.013217555 0.05365833 -0.54140055 0.71528226 0.2437599 0.12253482 -0.26739493 0.55860496 0.6024301 0.106564105 -0.04077731 0.056622878 0.056622572 -0.17602618 -0.23399535 0.2847822 -0.47366992 0.26071283 0.01284738 0.13435195 0.15816402 -0.8302566 0.24693693 0.13749728 -0.18479058 0.6796364 -0.17383519 -0.24897827 -0.20356348 -0.13598973 0.0037885634 -0.19698963 -0.48129886 0.16181341 0.48871243 0.5377756 -0.14418536 -0.12938073 0.41046005 0.37687457 0.0016593664 -0.12803787 -0.40449154 -0.21531269 -0.25266922 -0.12369687 -0.06396155 -0.20643882 -0.1365396 -0.05231737 -0.41095647 0.11878591 -0.1192235 0.6759183 -0.2185949 0.19084811 0.51564634 -0.18916754 -0.09823502 0.015602658
62 -0.63169396 -0.21809438 0.15804453 -0.6949468 0.1550578 0.16676505 -0.080845945 0.61744833 0.28601182 0.20956446 -0.24375568 0.46543285 0.4835769 -0.010581412 0.11070079 0.09289416 0.27735454 -0.10868672 -0.18998674 0.070669204 -0.44168988 0.255121 0.35419312 0.009626378 0.0719343 -0.6727106 0.09739469 0.10406972 -0.35343128 0.19282529 -0.010606446 -0.16324224 -0.39150897 0.087040156 -0.18014084 -0.062517844 -0.6420351 0.4229713 0.049997695 0.5014889 -0.07745329 -0.24817884 -0.01769941 0.18405303 0.08474807 0.15927495 -0.068828054 -0.3796962 -0.12840812 0.09356187 -0.026876977 -0.22207083 -0.019992154 -0.23304975 0.005027444 0.22204773 -0.029374128 0.21216822 -0.19674961 0.61836296 0.28622526 -0.038565893 -0.25541842 0.32033366
12 -0.5568722 -0.2833822 0.32364482 -0.7075459 0.2089439 0.055910718 -0.23610237 0.7277468 0.31916976 0.14426023 -0.21451142 0.5590049 0.47927186 -0.029341506 0.088219136 0.14023261 0.40713334 -0.035806786 -0.35768995 0.014552764 -0.29305592 0.29209325 0.10568385 0.10324781 0.2353306 -0.6517645 0.2614586 0.069834486 -0.3308864 0.35274544 -0.09779664 -0.2875334 -0.30453613 -0.07448193 -0.14284003 -0.13786423 -0.5219671 0.27383816 0.22833459 0.5685266 -0.26303548 -0.32044232 0.103565335 0.2105701 0.059587013 0.22254354 -0.06860098 -0.26289186 0.037122272 0.05508576 -0.052844115 -0.14239584 -0.09112686 -0.11749964 -0.13946006 0.31447104 -0.032353774 0.30989382 -0.078530915 0.48740143 0.4945952 -0.081661366 -0.22599058 0.23059073
58 -0.0914435 0.32713708 -0.076504625 -0.09497757 -0.09908236 0.1120808 0.23065612 0.17591013 0.29808646 -0.56766486 -0.4694885 -0.10194174 -0.04361442 0.28785154 0.18920907 -0.20501646 0.3383081 -0.44499663 0.041152798 -0.31365862 -0.121581085 0.1193436 -0.10347229 0.099384196 0.08783406 -0.4782205 -0.20161118 0.020914294 -0.45094347 0.14858618 -0.4967683 0.115101404 -0.40752822 -0.055441737 0.024333134 0.11942766 0.27278453 -0.03209736 -0.09770294 0.1828504 0.0836739 -0.1244048 0.08201043 0.41666102 0.20250401 0.1281964 -0.15592808 0.1270296 -0.34029737 -0.18786901 0.37370408 -0.26651746 -0.5252287 -0.013918164 0.23464842 0.03631351 -0.04592294 0.15632935 -0.16201411 0.14141986 -0.17503698 -0.029770993 -0.038438797 -0.2808602
23 -0.17283311 -0.5222299 -0.20208007 -0.068242595 -0.27526125 0.2246384 -0.19653818 0.52614045 -0.08438574 0.31964034 -0.15768602 0.26477063 0.3274855 0.15655263 0.15237138 -0.31864566 0.10180865 -0.30557764 -0.026844816 -0.28670692 -0.1314358 0.33556923 -0.39395872 -0.047762364 0.0085170455 -0.24824636 0.035911344 -0.17332901 0.0041285194 0.5677045 0.019312346 -0.23869571 -0.38805443 -0.19047879 -0.051026583 0.12822315 -0.51559365 0.2994308 0.12119972 0.46711096 -0.16663167 0.015803091 -0.014972803 -0.21897869 -0.17522088 0.16967426 0.111981496 -0.11420373 0.24980798 0.027299363 -0.18385662 -0.334388 -0.44089854 0.021864083 -0.015845211 0.2750278 0.10709927 0.18603143 -0.27090573 -0.03172714 -0.004409982 0.006626702 -0.5498187 0.16750784
13 -0.35354948 -0.33264446 -0.43153068 -0.5669837 0.27972016 0.01846696 0.28641355 -0.064668484 0.034183126 -0.2685967 0.35704276 -0.23303111 0.12469278 0.42161542 -0.05101566 -0.046277076 -0.13978997 -0.14547007 0.37084672 -0.39423603 -0.10789667 -0.216865 -0.2687865 0.047306757 -0.379366 -0.47097245 -0.061867263 0.07574217 -0.10350634 0.098362476 -0.07291642 0.07018276 -0.26688737 -0.0229211 0.5520857 0.23981744 0.11058926 -0.6497164 0.49093023 0.087450385 -0.31196356 -0.14701788 0.12398234 -0.17268516 0.5698832 -0.33059704 0.09345973 -0.35023013 -0.068046644 -0.30944815 -0.15384868 -0.22861241 0.09489332 -0.05763176 -0.139094 0.11314973 0.62047255 -0.3052112 -0.1632654 -0.15867634 0.37616464 -0.5078689 -0.22790419 -0.022779828
14 -0.1552624 0.30174154 -0.13743207 -0.14941911 -0.08699669 0.20205474 0.38947108 0.024200128 0.36067292 -0.3812578 -0.37086752 -0.079567485 0.027221715 0.22011836 0.1314251 -0.087225966 0.21429984 -0.5674005 -0.0063682604 -0.42136142 -0.18008971 0.06764728 -0.17921466 0.07406356 -0.032365154 -0.40477523 -0.3522862 -0.057915542 -0.4378297 0.25127423 -0.37340575 0.05110217 -0.52106607 -0.015533341 -0.08558534 0.0130774295 0.08443241 -0.10189723 -0.21115391 0.15529917 0.031203395 -0.1475312 0.14423706 0.3731129 0.42191845 0.047203258 -0.24549061 0.18986285 -0.097264454 -0.0035684297 0.33726963 -0.28859022 -0.3517088 -0.10499015 0.22727819 0.05067349 -0.235832 0.2793429 -0.08420823 0.033606123 -0.03473658 -0.0060328473 0.06585146 -0.4835909
18 -0.25334746 -0.054726634 -0.12373738 -0.6053982 0.32332987 0.32763705 -0.016228838 -0.43346944 0.016305646 -0.1547619 -0.16548817 -0.00773315 0.060594738 0.20435525 -0.03502788 -0.1100899 -0.1742684 -0.053452507 0.33379605 -0.26146784 0.08165084 -0.0733112 -0.12751813 0.05373736 -0.07637809 -0.15533032 0.36897436 0.2190369 0.18890034 0.25972518 0.1630108 -0.15862986 -0.47830343 0.073076144 0.31619757 0.044104572 -0.025334755 -0.53880304 0.31009084 0.2750073 -0.6478087 -0.47027862 -0.12404952 0.24431899 0.021482281 -0.4009088 -0.002265613 0.015467786 -0.058681868 -0.09773144 -0.055885155 -0.27972272 0.029805087 0.2228965 -0.067951664 0.020515675 0.098744854 -0.049473174 -0.16220911 0.120950595 -0.05469432 -0.1211433 -0.14218682 0.10065812
64 -0.20566945 -0.6943975 -0.17580076 -0.19230789 -0.24987015 0.28005704 -0.42378083 0.44843847 0.0732209 0.21319678 -0.15525343 0.28358594 0.26449078 -0.082703926 0.059694048 -0.408502 0.0038300343 -0.39403132 -0.0196178 -0.47994968 -0.0988828 0.34963274 -0.30495864 -0.24597387 0.08180862 -0.3491983 0.0072034807 -0.1660648 -0.24579488 0.43346086 0.05189277 -0.1948968 -0.2650473 -0.052821912 -0.15589903 0.058152124 -0.51084405 0.29737392 0.1639439 0.24193922 -0.051504284 0.0045812596 -0.1732927 -0.07794959 0.004588295 0.13221884 0.04221758 -0.10115948 0.13068402 0.0016624833 -0.2551864 -0.30498984 -0.46829382 0.06055037 -0.07359828 0.159361 0.22109623 0.13356178 -0.3834158 0.06530971 -0.15646577 0.060923524 -0.29801077 0.1767445
59 -0.083507575 0.16993438 0.047605712 -0.16852267 -0.17702174 0.037166283 0.35487223 -0.25087583 0.10964902 -0.39590415 -0.25066608 -0.032327235 0.09371825 0.13334377 -0.10322394 0.13219692 0.023187136 -0.17062001 -0.2987539 -0.2696787 -0.18315749 0.06279318 -0.16256778 0.24390835 -0.07368202 -0.45240247 -0.27842885 -0.276752 -0.40117565 0.35101163 -0.45612854 0.20233282 -0.5367121 -0.04477373 -0.012571651 0.35922423 -0.13362041 0.0849023 0.18744291 0.07081476 -0.08558274 -0.2740836 0.14701872 0.09586044 0.48593956 0.4232905 -0.41077662 0.2131501 -0.049011167 -0.19877334 0.47135252 -0.149541 -0.5031641 0.13500364 0.14456727 0.113559686 -0.28572312 0.10777544 -0.07709441 0.1771332 0.050291542 0.15569335 -0.0034564557 -0.14223081
5 -0.31160706 -0.1888387 -0.19526736 -0.38449138 0.11764818 0.18222491 -0.005164653 -0.15363175 -0.27233696 -0.21963471 0.20097144 -0.1964173 0.08764962 0.008055169 -0.19996175 -0.16182537 -0.19824508 -0.08524782 -0.035216868 -0.34728238 -0.2914913 -0.25456187 0.06880389 0.15180673 0.087799504 -0.14182097 -0.0042602466 0.09571213 0.013487361 0.3995307 0.06788599 -0.1322906 -0.13581151 0.06869906 0.485471 0.5066388 0.08246837 -0.3859085 0.20937663 0.34737405 -0.32769147 -0.34788427 0.07231657 0.36946365 -0.18397583 -0.25229263 0.0142792305 -0.063665204 -0.059346218 -0.07444232 0.15029325 -0.36642966 0.19184586 -0.033306975 0.16842268 0.21432191 0.41334724 -0.18400463 -0.07884732 0.22008431 0.23928203 -0.6098214 -0.2201036 0.07509778
65 -0.20677175 -0.17302522 -0.20381264 -0.3292097 -0.27862978 0.11895425 -0.044422008 0.6434124 -0.097663596 -0.021936232 -0.015053483 0.42932796 0.34143004 -0.20569487 0.05335265 -0.09909403 0.39585245 -0.5147597 -0.18956277 -0.111464724 -0.26961562 0.3790282 -0.23486488 -0.04368596 0.09957259 -0.11465561 -0.058541402 0.15242814 -0.15528071 0.4421138 0.2641478 -0.10328295 -0.50160086 -0.14781594 0.17599665 -0.0018126505 -0.43159312 0.41985595 0.68440896 0.38749823 0.025090642 -0.016361218 0.015643612 -0.09712885 -0.18920878 -0.04675897 0.1371731 0.014306692 0.32033652 0.08920917 -5.9529437e-05 -0.30259156 -0.23661879 -0.064118564 -0.22924499 -0.016503971 0.041509517 -0.068031974 -0.3622231 0.05173415 -0.19697884 -0.040495675 -0.3357232 0.15917799
10 -0.23870756 -0.109221056 -0.065856464 -0.3325825 -0.13928556 0.0916531 -0.18362501 0.4316952 -0.05161767 -0.09603347 0.06657753 0.4568769 0.38415134 -0.2984515 0.03210284 -0.067132965 0.33079234 -0.6908131 -0.2160487 -0.3073501 -0.18125567 0.26538143 -0.05626558 -0.22763793 0.1452522 -0.26913962 -0.052991886 -0.02925038 -0.22731322 0.35928068 0.10624811 -0.19027583 -0.5537654 -0.09651366 0.12694536 -0.14400521 -0.43063813 0.47146282 0.6058665 0.30093282 -0.07775316 -0.024061806 0.1119233 -0.11106818 -0.23648791 0.030403992 0.014946742 0.017852968 0.26041266 0.14985931 -0.32499817 -0.32719147 -0.23136896 -0.09536808 -0.100067414 0.05247805 0.15099633 -0.17959687 -0.49767026 -0.0392557 -0.20958364 0.045535263 -0.166221 0.21522644
61 -0.45351583 -0.30661747 -0.38744432 -0.53385127 0.36308023 0.17761679 0.28474697 -0.07397954 0.018024882 -0.43718153 0.30864945 -0.2929884 0.1452188 0.56053513 0.015367965 0.03706204 -0.18923393 -0.19749872 0.37333742 -0.43871102 -0.10817007 -0.118457474 -0.24472791 0.12382833 -0.34212708 -0.40965623 -0.008550528 0.1661304 -0.009963241 0.09661311 -0.071013324 -0.09880011 -0.39921758 -0.048175387 0.62304544 0.2425376 0.036508314 -0.59540206 0.4300575 0.070892826 -0.43836617 -0.32332823 0.14055994 -0.23065132 0.5630314 -0.24461779 0.24308616 -0.5204694 0.06351257 -0.19576108 -0.19194905 -0.053388644 0.08778814 0.08599906 -0.062137052 -0.023457931 0.36408165 -0.16755904 -0.11268931 -0.11787536 0.03999521 -0.5583387 -0.028266154 0.124030285
60 -0.24308468 -0.49004635 -0.6633294 -0.35303128 0.15493415 0.37534308 0.16192356 -0.1798868 0.017310604 -0.23592955 0.21508415 -0.14798965 0.14093332 0.5604269 -0.09346401 -0.1511245 0.0770847 -0.23640604 0.50577486 -0.43221164 -0.19242874 -0.24615015 -0.021398515 0.2721975 -0.32933742 -0.11112386 -0.02138547 0.022029812 0.06147782 0.0049690004 0.13595209 -0.123212315 -0.35134318 0.091081314 0.15001856 0.22790784 0.16566776 -0.6080373 0.6276944 0.36627722 -0.2823491 -0.29097667 0.21109082 0.015817264 0.5124521 0.089442 0.1054112 -0.26429424 -0.08106348 -0.45266038 0.076093495 -0.1855861 0.3479984 0.07647094 0.19376896 0.10338859 0.56007695 -0.2397483 -0.30780667 -0.16395721 0.25495598 -0.42202896 -0.06852263 0.1670583
1 -0.05866155 0.16628568 -0.16257371 -0.04747471 -0.048762735 0.044116423 0.20052914 -0.3094774 0.14217584 -0.36495638 -0.30224407 -0.15687516 0.011464662 0.23726736 0.07594006 0.10193789 0.10122804 -0.005526823 -0.3141815 -0.24534686 -0.1318437 0.062415253 -0.12610959 0.23791069 0.21680453 -0.38331386 -0.32961386 -0.0867143 -0.67507946 0.3987652 -0.43859103 0.3741463 -0.5748848 -0.075349234 0.03838943 0.2118483 -0.057847623 0.07140529 0.21033661 0.25858897 -0.066628516 -0.2343916 0.14257838 0.19200523 0.37148994 0.35424194 -0.18394426 0.07638099 -0.08456787 -0.13411263 0.3765273 -0.06296041 -0.6176415 0.027037296 0.20806454 -0.10657378 -0.14452721 -0.16393031 -0.08476347 0.1329392 0.12935229 0.14220253 -0.012943077 -0.2018787
0 -0.132506 -0.34504363 -0.5503457 -0.48274505 0.34593213 0.39070278 0.17759572 -0.16084446 -0.25851956 -0.19273433 0.17369065 -0.07497418 -0.110821635 0.63987976 0.10660622 -0.07625641 0.0395845 -0.3639186 0.43752414 -0.6262873 -0.13737828 -0.09166139 -0.030351039 0.22729492 -0.3283522 -0.2554865 0.13204773 0.10943302 0.122631446 -0.047526598 0.093271345 -0.1686833 -0.2785574 -0.0011084771 0.11559389 0.17103921 0.09590218 -0.6626072 0.6850422 0.41029721 -0.27915397 -0.305462 0.18300696 -0.06962942 0.53162014 0.056733787 0.042598788 -0.34234995 -0.08691636 -0.36610827 -0.068146385 -0.1634903 0.30126172 0.05345778 0.07768084 0.0365775 0.46445954 -0.14844029 -0.23342818 -0.047467947 0.057367906 -0.43861791 -0.0830057 0.2922599
19 -0.32483634 -0.1953296 -0.20595868 -0.43845162 -0.048385106 0.007137728 0.026024366 -0.23765804 -0.13376884 -0.32968652 -0.22466032 -0.078386985 0.1894244 -0.074115045 -0.037992485 0.032105237 -0.15262713 -0.00022717564 0.00477582 -0.41227725 -0.05756171 0.02257466 0.07020557 0.055778787 0.17508863 -0.019696927 0.08607694 0.110778615 0.13138533 0.44279572 -0.06110895 -0.18398608 -0.018858979 -0.20367187 0.31070846 0.4184773 -0.0026129275 -0.30713975 0.47321492 0.2245423 -0.26368007 -0.26548073 -0.20151109 0.30517256 -0.011165649 -0.10163924 0.1586266 -0.09577208 -0.2213822 -0.0339982 -0.32524344 -0.21972558 0.07365408 -0.28623062 0.14923503 0.2120143 -0.0095801605 0.1324282 -0.122088276 0.23832329 0.19652373 -0.18470448 -0.032638613 -0.045011338
21 0.06439245 0.16134322 -0.16577093 -0.29248673 -0.115612224 -0.26635343 -0.08373734 0.13639888 0.40720305 -0.42795873 -0.20569442 -0.11061929 -0.25225037 -0.013639874 -0.08922274 -0.010196576 -0.02335295 -0.402222 0.099413104 -0.17570007 -0.07721316 0.041602373 0.20421582 0.25108972 0.053367194 -0.127142 -0.10783702 -0.07876062 -0.29506823 0.439547 -0.2011037 0.21680139 -0.3830897 -0.027687795 -0.08641025 -0.002810062 -0.2751983 -0.34984657 -0.08742384 0.24072747 0.014899611 0.07860714 0.13713253 -0.035810348 0.08028584 0.1788264 0.02819913 -0.010226919 -0.38966027 -0.35739908 0.36351186 0.5625608 -0.23964189 0.22339036 -0.031593475 -0.271089 0.15832093 0.17409788 -0.23777546 0.12017316 0.043069746 -0.09614445 -0.23951034 0.020168006
2 0.19086659 -0.030716548 0.001079606 -0.36473918 -0.11835321 -0.1574892 0.2982876 -0.264201 0.27995512 0.047845513 0.2078536 -0.38387087 -0.015429167 0.004198142 0.20392789 -0.37354174 0.03754972 -0.37008083 -0.00037655304 -0.037563596 -0.16506255 -0.061416112 -0.13311547 0.2781007 -0.194185 -0.10348265 0.13097975 0.044595692 0.056519058 -0.039973743 -0.031558048 0.2704761 -0.15170878 -0.026409317 -0.121439815 0.04968502 -0.13042916 0.07193028 0.22298254 0.26178777 -0.3769004 0.029813852 0.42787683 -0.021606587 0.5658218 0.12148735 0.3036847 -0.5344091 0.0016871789 -0.38467652 0.10248515 0.18701248 -0.010095678 0.000289601 -0.048809398 0.01058322 0.25588375 0.16511376 -0.5631114 0.27064973 0.21181892 -0.4076021 -0.045083344 -0.25134045
8 -0.10656285 0.009856311 0.04370802 -0.20299694 0.14712077 0.066956416 -0.024750471 -0.030372074 0.28743044 -0.42015865 0.11869145 -0.12429637 0.038954433 -0.35942158 0.48129663 0.026252406 -0.18556869 -0.44634247 0.0806779 -0.106705554 0.060272276 0.020753892 -0.0029130336 0.47730002 -0.35100418 -0.38025123 -0.2892989 -0.19408229 -0.023636986 0.41278082 -0.13126706 0.21450713 -0.32297808 -0.2524995 -0.17808087 -0.09410084 -0.14651074 -0.11146061 -0.031308185 0.26102686 -0.03482679 0.16133463 -0.02236295 -0.22961695 0.3413368 0.30943072 -0.07831648 0.10133999 -0.2850434 -0.09022893 0.40058023 -0.032471906 -0.06768729 -0.019935476 -0.041675948 -0.10997602 -0.009504239 0.023983046 -0.016068324 0.24415542 0.2688241 -0.02787052 -0.00777906 -0.26876962
11 -0.5366817 -0.2150291 0.22970171 -0.4287578 0.14741042 0.049507223 -0.1269839 0.69203305 0.14576475 0.12757005 -0.23872536 0.37054887 0.47485742 0.11951938 0.22633159 0.12090142 -0.08446948 -0.06881311 -0.012111824 -0.17207943 -0.22341269 0.28953445 0.3621819 -0.13954407 0.0034973929 -0.47765175 -0.058863588 0.46102938 -0.1838048 0.40097684 -0.21422753 -0.19078884 -0.42096457 0.1092929 -0.22267455 -0.041880935 -0.33553317 0.48515403 0.24385981 0.4580268 0.058576003 -0.15891027 0.07589916 0.1849339 0.026241254 0.060885035 0.19324696 -0.28843486 -0.028272498 0.2009632 -0.11702011 -0.16172504 -0.047814082 0.081172526 -0.04034133 0.1397041 0.028199043 0.18442725 -0.04259461 0.45146093 0.018603731 -0.08389687 -0.43904877 -0.07413274
6 -0.25078762 -0.23369172 -0.14224744 -0.3641261 0.21179165 0.2313971 -0.2330554 -0.32565293 0.17725919 -0.1256114 0.15098722 0.03502638 0.21728593 0.049023625 0.14399229 0.06519906 -0.0015035848 -0.07962719 0.28546843 -0.03349804 -0.24600594 -0.087016776 0.04528441 0.018554933 0.23268737 -0.23854041 0.0057775783 -0.033593822 -0.037124444 0.15096717 0.15759833 -0.04711265 -0.24980061 0.08594367 0.019352546 0.115203984 0.13357396 -0.4020249 0.33089423 -0.01289379 -0.5433848 -0.36422554 0.00069396844 0.26946932 0.0026186656 -0.35988596 -0.20528044 -0.012237497 0.046934865 0.14417344 0.07365362 -0.18158253 -0.019892197 0.17937145 0.027518053 0.075150356 -0.035315458 -0.1205706 -0.20617072 0.16570376 -0.10059133 -0.14123432 -0.6595027 0.010536077
15 0.29749018 -0.3946078 -0.14543161 -0.63906354 -0.1050981 0.33694723 0.37998313 0.23850311 -0.07950644 -0.1861176 0.20551142 -0.47558424 -0.01659783 0.008461144 0.28516304 -0.14671771 0.059731264 -0.36837417 0.20510551 0.21444868 -0.09714464 -0.0103092585 0.017364476 0.18255253 -0.20286983 -0.20758986 -0.03117238 -0.20112307 -0.038181905 0.099582724 -0.42002237 0.09934601 -0.25795695 -0.18849647 -0.11922328 -0.34718013 -0.12557475 -0.18368112 0.32986426 -0.16756685 -0.26069677 -0.12007829 0.45298553 -0.10510644 0.18757455 0.20539059 0.16238096 -0.22224732 -0.22001272 -0.21413283 0.050969224 0.16560721 -0.111237876 0.10269269 0.077834226 -0.014308289 0.20657755 -0.11038655 -0.034768254 0.123717695 0.24212037 -0.23227805 0.1701381 -0.08669747
25 -0.5674207 -0.4575408 0.060444687 -0.5383807 0.1430353 0.0649706 -0.50649065 0.6603197 0.26907283 -0.12219482 -0.4587533 0.5766989 0.8154308 0.15578768 -0.18970917 0.08392874 0.13582453 -0.207747 -0.21295321 0.2511335 -0.47168154 0.38736254 -0.06284184 0.1336399 0.19005232 -0.97347623 0.30170256 0.2878466 -0.12847988 0.6429156 -0.19385226 -0.2472327 -0.14359355 -0.032685205 -0.003529779 -0.3919261 -0.49915898 0.19848818 0.4605888 0.5968223 -0.23864497 -0.1815501 0.34806728 0.3142593 -0.11680459 -0.15990303 -0.4643136 -0.19680797 -0.35410112 -0.07459155 1.6009963e-05 -0.18837228 -0.1766317 -0.08798375 -0.35328418 0.028054837 -0.0330203 0.6838926 -0.2218436 0.053826094 0.477721 -0.27587107 -0.12647642 -0.044477023
24 -0.6026809 -0.40603983 0.05501646 -0.17508644 0.0018904948 0.19711143 -0.08545676 0.26123977 0.27677187 0.09564274 -0.04744143 0.7375464 0.3017804 -0.15156008 0.22917852 -0.4114327 0.030941531 -0.11685526 0.0027055019 -0.30317527 -0.24258709 0.30149046 0.48390234 0.10943757 -0.01827933 -0.35968032 0.35024372 0.035179388 -0.10222618 0.23457977 0.090228036 -0.08638122 -0.5764995 -0.0042460654 0.18699495 -0.09181733 -0.4058418 0.2770992 0.047427945 -0.039465386 -0.01817783 0.1509136 0.091845736 0.028272664 -0.04319139 0.11925174 0.19170377 -0.46220434 -0.15750659 0.089555 -0.1079477 -0.24055043 -0.60606015 -0.007687504 0.091613196 -0.0093024885 -0.23490562 -0.31120026 -0.12355242 0.09092559 0.16180287 -0.19169329 -0.32598752 0.2575349
